digraph Tree {
0 [label="X[0] <= 2184.8882\ngini = 0.735043931787\nsamples = 3040", shape="box"] ;
1 [label="X[2] <= 1268.4165\ngini = 0.582619298912\nsamples = 1798", shape="box"] ;
0 -> 1 ;
2 [label="X[0] <= 987.4589\ngini = 0.0474715628495\nsamples = 782", shape="box"] ;
1 -> 2 ;
3 [label="X[1] <= 1000.3198\ngini = 0.012936062283\nsamples = 768", shape="box"] ;
2 -> 3 ;
4 [label="X[0] <= 969.7437\ngini = 0.00261437460596\nsamples = 764", shape="box"] ;
3 -> 4 ;
5 [label="gini = 0.0000\nsamples = 761\nvalue = [   0.    0.    0.  761.]", shape="box"] ;
4 -> 5 ;
6 [label="X[2] <= 851.0687\ngini = 0.444444444444\nsamples = 3", shape="box"] ;
4 -> 6 ;
7 [label="gini = 0.0000\nsamples = 2\nvalue = [ 0.  0.  0.  2.]", shape="box"] ;
6 -> 7 ;
8 [label="gini = 0.0000\nsamples = 1\nvalue = [ 0.  0.  1.  0.]", shape="box"] ;
6 -> 8 ;
9 [label="gini = 0.0000\nsamples = 4\nvalue = [ 0.  0.  4.  0.]", shape="box"] ;
3 -> 9 ;
10 [label="X[2] <= 953.3885\ngini = 0.132653061224\nsamples = 14", shape="box"] ;
2 -> 10 ;
11 [label="gini = 0.0000\nsamples = 1\nvalue = [ 1.  0.  0.  0.]", shape="box"] ;
10 -> 11 ;
12 [label="gini = 0.0000\nsamples = 13\nvalue = [  0.   0.  13.   0.]", shape="box"] ;
10 -> 12 ;
13 [label="X[2] <= 5300.7588\ngini = 0.286440572881\nsamples = 1016", shape="box"] ;
1 -> 13 ;
14 [label="X[1] <= 910.3929\ngini = 0.230808308332\nsamples = 969", shape="box"] ;
13 -> 14 ;
15 [label="X[2] <= 3319.4341\ngini = 0.0820408163265\nsamples = 560", shape="box"] ;
14 -> 15 ;
16 [label="X[2] <= 3086.5845\ngini = 0.0394105792272\nsamples = 547", shape="box"] ;
15 -> 16 ;
17 [label="X[0] <= 1334.7900\ngini = 0.0329577728535\nsamples = 537", shape="box"] ;
16 -> 17 ;
18 [label="X[2] <= 2938.8188\ngini = 0.00985197529654\nsamples = 404", shape="box"] ;
17 -> 18 ;
19 [label="X[1] <= 837.5465\ngini = 0.00520829782738\nsamples = 383", shape="box"] ;
18 -> 19 ;
20 [label="gini = 0.0000\nsamples = 344\nvalue = [   0.    0.  344.    0.]", shape="box"] ;
19 -> 20 ;
21 [label="X[1] <= 838.7259\ngini = 0.0499671268902\nsamples = 39", shape="box"] ;
19 -> 21 ;
22 [label="gini = 0.0000\nsamples = 1\nvalue = [ 0.  1.  0.  0.]", shape="box"] ;
21 -> 22 ;
23 [label="gini = 0.0000\nsamples = 38\nvalue = [  0.   0.  38.   0.]", shape="box"] ;
21 -> 23 ;
24 [label="X[2] <= 2943.2954\ngini = 0.0907029478458\nsamples = 21", shape="box"] ;
18 -> 24 ;
25 [label="gini = 0.0000\nsamples = 1\nvalue = [ 0.  1.  0.  0.]", shape="box"] ;
24 -> 25 ;
26 [label="gini = 0.0000\nsamples = 20\nvalue = [  0.   0.  20.   0.]", shape="box"] ;
24 -> 26 ;
27 [label="X[0] <= 1338.3322\ngini = 0.0997229916898\nsamples = 133", shape="box"] ;
17 -> 27 ;
28 [label="gini = 0.0000\nsamples = 1\nvalue = [ 0.  1.  0.  0.]", shape="box"] ;
27 -> 28 ;
29 [label="X[1] <= 891.4231\ngini = 0.0867768595041\nsamples = 132", shape="box"] ;
27 -> 29 ;
30 [label="X[0] <= 1346.4008\ngini = 0.0745147527192\nsamples = 129", shape="box"] ;
29 -> 30 ;
31 [label="X[0] <= 1343.8601\ngini = 0.32\nsamples = 5", shape="box"] ;
30 -> 31 ;
32 [label="gini = 0.0000\nsamples = 4\nvalue = [ 0.  0.  4.  0.]", shape="box"] ;
31 -> 32 ;
33 [label="gini = 0.0000\nsamples = 1\nvalue = [ 0.  1.  0.  0.]", shape="box"] ;
31 -> 33 ;
34 [label="X[2] <= 2097.5515\ngini = 0.0624349635796\nsamples = 124", shape="box"] ;
30 -> 34 ;
35 [label="X[2] <= 2086.3354\ngini = 0.122547702231\nsamples = 61", shape="box"] ;
34 -> 35 ;
36 [label="X[2] <= 1965.5081\ngini = 0.0665873959572\nsamples = 58", shape="box"] ;
35 -> 36 ;
37 [label="gini = 0.0000\nsamples = 36\nvalue = [  0.   0.  36.   0.]", shape="box"] ;
36 -> 37 ;
38 [label="X[2] <= 1973.6095\ngini = 0.165289256198\nsamples = 22", shape="box"] ;
36 -> 38 ;
39 [label="gini = 0.0000\nsamples = 2\nvalue = [ 0.  2.  0.  0.]", shape="box"] ;
38 -> 39 ;
40 [label="gini = 0.0000\nsamples = 20\nvalue = [  0.   0.  20.   0.]", shape="box"] ;
38 -> 40 ;
41 [label="X[0] <= 1681.3611\ngini = 0.444444444444\nsamples = 3", shape="box"] ;
35 -> 41 ;
42 [label="gini = 0.0000\nsamples = 2\nvalue = [ 0.  2.  0.  0.]", shape="box"] ;
41 -> 42 ;
43 [label="gini = 0.0000\nsamples = 1\nvalue = [ 0.  0.  1.  0.]", shape="box"] ;
41 -> 43 ;
44 [label="gini = 0.0000\nsamples = 63\nvalue = [  0.   0.  63.   0.]", shape="box"] ;
34 -> 44 ;
45 [label="X[2] <= 2611.8657\ngini = 0.444444444444\nsamples = 3", shape="box"] ;
29 -> 45 ;
46 [label="gini = 0.0000\nsamples = 1\nvalue = [ 0.  1.  0.  0.]", shape="box"] ;
45 -> 46 ;
47 [label="gini = 0.0000\nsamples = 2\nvalue = [ 0.  0.  2.  0.]", shape="box"] ;
45 -> 47 ;
48 [label="X[2] <= 3090.5618\ngini = 0.32\nsamples = 10", shape="box"] ;
16 -> 48 ;
49 [label="gini = 0.0000\nsamples = 1\nvalue = [ 0.  1.  0.  0.]", shape="box"] ;
48 -> 49 ;
50 [label="X[1] <= 808.9402\ngini = 0.197530864198\nsamples = 9", shape="box"] ;
48 -> 50 ;
51 [label="gini = 0.0000\nsamples = 1\nvalue = [ 0.  1.  0.  0.]", shape="box"] ;
50 -> 51 ;
52 [label="gini = 0.0000\nsamples = 8\nvalue = [ 0.  0.  8.  0.]", shape="box"] ;
50 -> 52 ;
53 [label="gini = 0.0000\nsamples = 13\nvalue = [  0.  13.   0.   0.]", shape="box"] ;
15 -> 53 ;
54 [label="X[2] <= 2880.7468\ngini = 0.381633299657\nsamples = 409", shape="box"] ;
14 -> 54 ;
55 [label="X[2] <= 1680.5872\ngini = 0.497408\nsamples = 125", shape="box"] ;
54 -> 55 ;
56 [label="gini = 0.0000\nsamples = 22\nvalue = [  0.   0.  22.   0.]", shape="box"] ;
55 -> 56 ;
57 [label="X[0] <= 1051.9381\ngini = 0.492035064568\nsamples = 103", shape="box"] ;
55 -> 57 ;
58 [label="X[1] <= 1100.9995\ngini = 0.328180737218\nsamples = 29", shape="box"] ;
57 -> 58 ;
59 [label="X[1] <= 996.6405\ngini = 0.48\nsamples = 15", shape="box"] ;
58 -> 59 ;
60 [label="X[2] <= 1766.5154\ngini = 0.297520661157\nsamples = 11", shape="box"] ;
59 -> 60 ;
61 [label="gini = 0.0000\nsamples = 2\nvalue = [ 0.  2.  0.  0.]", shape="box"] ;
60 -> 61 ;
62 [label="gini = 0.0000\nsamples = 9\nvalue = [ 0.  0.  9.  0.]", shape="box"] ;
60 -> 62 ;
63 [label="gini = 0.0000\nsamples = 4\nvalue = [ 0.  4.  0.  0.]", shape="box"] ;
59 -> 63 ;
64 [label="gini = 0.0000\nsamples = 14\nvalue = [  0.   0.  14.   0.]", shape="box"] ;
58 -> 64 ;
65 [label="X[0] <= 1532.7986\ngini = 0.417823228634\nsamples = 74", shape="box"] ;
57 -> 65 ;
66 [label="X[1] <= 925.2971\ngini = 0.0499671268902\nsamples = 39", shape="box"] ;
65 -> 66 ;
67 [label="X[0] <= 1262.8408\ngini = 0.5\nsamples = 2", shape="box"] ;
66 -> 67 ;
68 [label="gini = 0.0000\nsamples = 1\nvalue = [ 0.  1.  0.  0.]", shape="box"] ;
67 -> 68 ;
69 [label="gini = 0.0000\nsamples = 1\nvalue = [ 0.  0.  1.  0.]", shape="box"] ;
67 -> 69 ;
70 [label="gini = 0.0000\nsamples = 37\nvalue = [  0.  37.   0.   0.]", shape="box"] ;
66 -> 70 ;
71 [label="X[1] <= 1871.5189\ngini = 0.48\nsamples = 35", shape="box"] ;
65 -> 71 ;
72 [label="X[1] <= 1008.7009\ngini = 0.5\nsamples = 28", shape="box"] ;
71 -> 72 ;
73 [label="X[2] <= 2249.2393\ngini = 0.345679012346\nsamples = 9", shape="box"] ;
72 -> 73 ;
74 [label="gini = 0.0000\nsamples = 2\nvalue = [ 0.  2.  0.  0.]", shape="box"] ;
73 -> 74 ;
75 [label="gini = 0.0000\nsamples = 7\nvalue = [ 0.  0.  7.  0.]", shape="box"] ;
73 -> 75 ;
76 [label="X[0] <= 2034.8401\ngini = 0.465373961219\nsamples = 19", shape="box"] ;
72 -> 76 ;
77 [label="X[0] <= 1539.8596\ngini = 0.277777777778\nsamples = 12", shape="box"] ;
76 -> 77 ;
78 [label="gini = 0.0000\nsamples = 1\nvalue = [ 0.  0.  1.  0.]", shape="box"] ;
77 -> 78 ;
79 [label="X[2] <= 1763.6145\ngini = 0.165289256198\nsamples = 11", shape="box"] ;
77 -> 79 ;
80 [label="X[0] <= 1546.2184\ngini = 0.5\nsamples = 2", shape="box"] ;
79 -> 80 ;
81 [label="gini = 0.0000\nsamples = 1\nvalue = [ 0.  1.  0.  0.]", shape="box"] ;
80 -> 81 ;
82 [label="gini = 0.0000\nsamples = 1\nvalue = [ 0.  0.  1.  0.]", shape="box"] ;
80 -> 82 ;
83 [label="gini = 0.0000\nsamples = 9\nvalue = [ 0.  9.  0.  0.]", shape="box"] ;
79 -> 83 ;
84 [label="X[1] <= 1349.7007\ngini = 0.408163265306\nsamples = 7", shape="box"] ;
76 -> 84 ;
85 [label="X[0] <= 2039.8979\ngini = 0.444444444444\nsamples = 3", shape="box"] ;
84 -> 85 ;
86 [label="gini = 0.0000\nsamples = 1\nvalue = [ 0.  0.  1.  0.]", shape="box"] ;
85 -> 86 ;
87 [label="gini = 0.0000\nsamples = 2\nvalue = [ 0.  2.  0.  0.]", shape="box"] ;
85 -> 87 ;
88 [label="gini = 0.0000\nsamples = 4\nvalue = [ 0.  0.  4.  0.]", shape="box"] ;
84 -> 88 ;
89 [label="gini = 0.0000\nsamples = 7\nvalue = [ 0.  0.  7.  0.]", shape="box"] ;
71 -> 89 ;
90 [label="X[1] <= 1905.2819\ngini = 0.276210077366\nsamples = 284", shape="box"] ;
54 -> 90 ;
91 [label="X[0] <= 1177.9670\ngini = 0.238175206612\nsamples = 275", shape="box"] ;
90 -> 91 ;
92 [label="X[2] <= 3731.0566\ngini = 0.409832989304\nsamples = 73", shape="box"] ;
91 -> 92 ;
93 [label="X[1] <= 1283.1484\ngini = 0.285374554102\nsamples = 58", shape="box"] ;
92 -> 93 ;
94 [label="X[0] <= 888.7286\ngini = 0.197530864198\nsamples = 54", shape="box"] ;
93 -> 94 ;
95 [label="gini = 0.0000\nsamples = 2\nvalue = [ 0.  2.  0.  0.]", shape="box"] ;
94 -> 95 ;
96 [label="X[2] <= 2933.3599\ngini = 0.14201183432\nsamples = 52", shape="box"] ;
94 -> 96 ;
97 [label="X[1] <= 1028.4739\ngini = 0.444444444444\nsamples = 3", shape="box"] ;
96 -> 97 ;
98 [label="gini = 0.0000\nsamples = 2\nvalue = [ 0.  0.  2.  0.]", shape="box"] ;
97 -> 98 ;
99 [label="gini = 0.0000\nsamples = 1\nvalue = [ 0.  1.  0.  0.]", shape="box"] ;
97 -> 99 ;
100 [label="X[0] <= 1053.4036\ngini = 0.11495210329\nsamples = 49", shape="box"] ;
96 -> 100 ;
101 [label="gini = 0.0000\nsamples = 20\nvalue = [  0.   0.  20.   0.]", shape="box"] ;
100 -> 101 ;
102 [label="X[0] <= 1059.0055\ngini = 0.185493460166\nsamples = 29", shape="box"] ;
100 -> 102 ;
103 [label="gini = 0.0000\nsamples = 1\nvalue = [ 0.  1.  0.  0.]", shape="box"] ;
102 -> 103 ;
104 [label="X[2] <= 3321.6084\ngini = 0.132653061224\nsamples = 28", shape="box"] ;
102 -> 104 ;
105 [label="gini = 0.0000\nsamples = 14\nvalue = [  0.   0.  14.   0.]", shape="box"] ;
104 -> 105 ;
106 [label="X[2] <= 3356.2476\ngini = 0.244897959184\nsamples = 14", shape="box"] ;
104 -> 106 ;
107 [label="gini = 0.0000\nsamples = 1\nvalue = [ 0.  1.  0.  0.]", shape="box"] ;
106 -> 107 ;
108 [label="X[1] <= 1007.4696\ngini = 0.14201183432\nsamples = 13", shape="box"] ;
106 -> 108 ;
109 [label="gini = 0.0000\nsamples = 1\nvalue = [ 0.  1.  0.  0.]", shape="box"] ;
108 -> 109 ;
110 [label="gini = 0.0000\nsamples = 12\nvalue = [  0.   0.  12.   0.]", shape="box"] ;
108 -> 110 ;
111 [label="gini = 0.0000\nsamples = 4\nvalue = [ 0.  4.  0.  0.]", shape="box"] ;
93 -> 111 ;
112 [label="X[1] <= 1437.6798\ngini = 0.391111111111\nsamples = 15", shape="box"] ;
92 -> 112 ;
113 [label="gini = 0.0000\nsamples = 11\nvalue = [  0.  11.   0.   0.]", shape="box"] ;
112 -> 113 ;
114 [label="gini = 0.0000\nsamples = 4\nvalue = [ 0.  0.  4.  0.]", shape="box"] ;
112 -> 114 ;
115 [label="X[2] <= 4599.4863\ngini = 0.154151553769\nsamples = 202", shape="box"] ;
91 -> 115 ;
116 [label="X[1] <= 1546.1372\ngini = 0.100836805434\nsamples = 169", shape="box"] ;
115 -> 116 ;
117 [label="X[0] <= 1691.9990\ngini = 0.0700826446281\nsamples = 165", shape="box"] ;
116 -> 117 ;
118 [label="X[0] <= 1203.2887\ngini = 0.0272057074911\nsamples = 145", shape="box"] ;
117 -> 118 ;
119 [label="X[0] <= 1200.1079\ngini = 0.132653061224\nsamples = 14", shape="box"] ;
118 -> 119 ;
120 [label="gini = 0.0000\nsamples = 13\nvalue = [  0.   0.  13.   0.]", shape="box"] ;
119 -> 120 ;
121 [label="gini = 0.0000\nsamples = 1\nvalue = [ 0.  1.  0.  0.]", shape="box"] ;
119 -> 121 ;
122 [label="X[2] <= 3208.1255\ngini = 0.0151506322475\nsamples = 131", shape="box"] ;
118 -> 122 ;
123 [label="X[2] <= 3199.8823\ngini = 0.0555102040816\nsamples = 35", shape="box"] ;
122 -> 123 ;
124 [label="gini = 0.0000\nsamples = 34\nvalue = [  0.   0.  34.   0.]", shape="box"] ;
123 -> 124 ;
125 [label="gini = 0.0000\nsamples = 1\nvalue = [ 0.  1.  0.  0.]", shape="box"] ;
123 -> 125 ;
126 [label="gini = 0.0000\nsamples = 96\nvalue = [  0.   0.  96.   0.]", shape="box"] ;
122 -> 126 ;
127 [label="X[0] <= 1706.6759\ngini = 0.32\nsamples = 20", shape="box"] ;
117 -> 127 ;
128 [label="gini = 0.0000\nsamples = 1\nvalue = [ 0.  1.  0.  0.]", shape="box"] ;
127 -> 128 ;
129 [label="X[1] <= 1014.2214\ngini = 0.265927977839\nsamples = 19", shape="box"] ;
127 -> 129 ;
130 [label="gini = 0.0000\nsamples = 1\nvalue = [ 0.  1.  0.  0.]", shape="box"] ;
129 -> 130 ;
131 [label="X[1] <= 1264.8281\ngini = 0.197530864198\nsamples = 18", shape="box"] ;
129 -> 131 ;
132 [label="X[1] <= 1216.4264\ngini = 0.345679012346\nsamples = 9", shape="box"] ;
131 -> 132 ;
133 [label="X[2] <= 4061.2356\ngini = 0.21875\nsamples = 8", shape="box"] ;
132 -> 133 ;
134 [label="gini = 0.0000\nsamples = 6\nvalue = [ 0.  0.  6.  0.]", shape="box"] ;
133 -> 134 ;
135 [label="X[0] <= 2108.5083\ngini = 0.5\nsamples = 2", shape="box"] ;
133 -> 135 ;
136 [label="gini = 0.0000\nsamples = 1\nvalue = [ 0.  0.  1.  0.]", shape="box"] ;
135 -> 136 ;
137 [label="gini = 0.0000\nsamples = 1\nvalue = [ 0.  1.  0.  0.]", shape="box"] ;
135 -> 137 ;
138 [label="gini = 0.0000\nsamples = 1\nvalue = [ 0.  1.  0.  0.]", shape="box"] ;
132 -> 138 ;
139 [label="gini = 0.0000\nsamples = 9\nvalue = [ 0.  0.  9.  0.]", shape="box"] ;
131 -> 139 ;
140 [label="X[0] <= 1514.7230\ngini = 0.375\nsamples = 4", shape="box"] ;
116 -> 140 ;
141 [label="gini = 0.0000\nsamples = 1\nvalue = [ 0.  0.  1.  0.]", shape="box"] ;
140 -> 141 ;
142 [label="gini = 0.0000\nsamples = 3\nvalue = [ 0.  3.  0.  0.]", shape="box"] ;
140 -> 142 ;
143 [label="X[1] <= 1379.7725\ngini = 0.367309458219\nsamples = 33", shape="box"] ;
115 -> 143 ;
144 [label="gini = 0.0000\nsamples = 8\nvalue = [ 0.  8.  0.  0.]", shape="box"] ;
143 -> 144 ;
145 [label="gini = 0.0000\nsamples = 25\nvalue = [  0.   0.  25.   0.]", shape="box"] ;
143 -> 145 ;
146 [label="gini = 0.0000\nsamples = 9\nvalue = [ 0.  9.  0.  0.]", shape="box"] ;
90 -> 146 ;
147 [label="gini = 0.0000\nsamples = 47\nvalue = [  0.  47.   0.   0.]", shape="box"] ;
13 -> 147 ;
148 [label="X[2] <= 3943.7930\ngini = 0.353625522183\nsamples = 1242", shape="box"] ;
0 -> 148 ;
149 [label="X[0] <= 2214.4775\ngini = 0.00416231280194\nsamples = 959", shape="box"] ;
148 -> 149 ;
150 [label="gini = 0.0000\nsamples = 1\nvalue = [ 0.  1.  0.  0.]", shape="box"] ;
149 -> 150 ;
151 [label="X[2] <= 3832.6680\ngini = 0.00208550346276\nsamples = 958", shape="box"] ;
149 -> 151 ;
152 [label="gini = 0.0000\nsamples = 953\nvalue = [ 953.    0.    0.    0.]", shape="box"] ;
151 -> 152 ;
153 [label="X[2] <= 3856.5356\ngini = 0.32\nsamples = 5", shape="box"] ;
151 -> 153 ;
154 [label="gini = 0.0000\nsamples = 1\nvalue = [ 0.  1.  0.  0.]", shape="box"] ;
153 -> 154 ;
155 [label="gini = 0.0000\nsamples = 4\nvalue = [ 4.  0.  0.  0.]", shape="box"] ;
153 -> 155 ;
156 [label="gini = 0.0000\nsamples = 283\nvalue = [   0.  283.    0.    0.]", shape="box"] ;
148 -> 156 ;
}